{"name":"A_OK","pose":true,"data":[[57.8483,125.552,39.4416,13.6982,152.714,2.31126,80.1362,185.348,-19.2679,99.2975,167.432,-18.4147,115.095,123.315,-16.0758],[56.0812,125.806,40.2346,10.6656,153.016,4.63427,77.9984,185.991,-18.2819,97.1421,168.454,-17.4374,111.941,124.41,-14.8611],[55.9179,130.039,41.9982,70.9041,191.627,-21.2826,94.7121,176.356,-19.4378,117.469,131.614,-13.2969],[57.5219,128.842,43.5993,12.2324,150.091,11.2914,80.7424,186.348,-13.9025,100.11,166.645,-14.9761,116.527,121.27,-10.6927],[58.672,139.856,50.9991,83.0167,212.485,1.05059,102.275,193.909,-0.295038,116.245,149.515,0.172428],[58.7782,141.708,51.8471,82.7751,212.959,0.775103,102.518,194.063,-0.782435,116.557,148.921,-1.63972],[57.4369,144.7,51.5484,79.9669,215.99,-0.606311,100.032,197.145,-2.64482,115.098,151.036,-3.53506],[56.2153,145.81,50.3979,77.6544,216.572,-2.86298,100.032,197.145,-2.64482,115.098,151.036,-3.53506],[59.6968,145.116,49.8705,77.2375,215.233,-4.44058,100.955,196.568,-4.56657,121.428,151.6,-4.24449],[61.6558,143.877,49.5861,92.9826,197.102,-11.6045,108.796,172.5,-13.9045,113.423,122.35,-10.6776],[61.5141,136.396,47.5506,18.001,167.371,18.4717,87.2095,178.007,-24.8488,104.174,154.551,-23.6437,111.839,108.055,-14.3172],[60.0832,133.659,44.5724,80.019,180.146,-26.5498,93.5214,155.603,-30.3517,91.9609,113.298,-29.6421],[58.8978,131.819,42.7015,77.1545,180.343,-26.3608,90.8476,155.655,-30.8567,90.3596,113.735,-30.0837],[48.8216,116.798,4.18374,55.104,160.045,-70.2053,74.177,137.559,-71.5988,86.1005,95.552,-61.3539],[47.5916,117.13,4.54941,54.0175,160.779,-69.3017,73.3508,138.572,-70.6399,85.3512,96.1467,-60.6492],[48.2605,119.916,12.3974,52.824,168.437,-56.2588,75.4528,151.961,-53.856,95.707,114.007,-42.2829],[48.7239,120.023,14.46,53.2934,169.343,-52.8176,76.4488,152.11,-51.5027,96.7206,113.124,-40.6708],[49.2081,120.637,17.1915,53.1403,171.152,-49.4442,76.7535,153.095,-49.5199,97.1283,113.058,-39.7263],[49.1562,120.889,18.5051,52.6206,171.757,-48.2592,76.4346,153.591,-48.6814,97.0156,113.135,-39.3544],[53.9726,123.183,23.7845,74.4229,170.738,-42.5248,89.352,142.356,-47.3101,87.9418,91.4103,-40.5995],[57.4107,127.6448,39.7544,13.6797,151.4387,2.2865,79.0914,183.8097,-19.2952,99.2672,164.1638,-18.5486,115.827,123.9419,-15.7814],[56.0514,123.4529,39.9675,10.6184,152.2485,4.6143,76.6078,183.4692,-17.9614,96.9962,171.4183,-17.3332,110.8866,122.6804,-14.8133],[55.415,131.1434,41.1707,72.1424,195.0852,-21.0176,95.2313,177.5236,-19.816,119.4061,131.7861,-13.0376],[56.608,130.9128,43.2131,12.1273,150.4449,11.2772,81.775,189.2802,-14.042,98.1232,168.4252,-15.0838,116.9859,123.5076,-10.888],[59.471,142.1739,50.0767,84.6176,210.8698,1.0646,102.1186,196.094,-0.2976,117.9429,148.2538,0.1716],[57.6495,139.4597,51.8916,81.7804,213.2872,0.7605,101.6358,191.434,-0.7766,116.3912,148.9025,-1.6511],[57.5126,146.3766,52.2678,80.9356,218.3841,-0.609,98.1335,198.8578,-2.6934,116.1042,152.1153,-3.5721],[57.1087,145.4329,51.2303,77.7575,220.1113,-2.8606,101.5044,199.9815,-2.6378,113.8046,149.567,-3.4853],[59.1231,146.434,48.9844,76.7013,212.2948,-4.4388,100.3634,199.897,-4.6471,120.5565,154.565,-4.2991],[60.9568,143.1415,48.6979,91.6956,196.7482,-11.7214,107.3552,175.6207,-14.1571,114.4138,124.1126,-10.5442],[60.9505,135.2366,48.0621,17.8003,164.3396,18.4194,88.7272,180.4652,-25.186,103.0825,151.9091,-23.7276,112.4386,108.7227,-14.5247],[60.5091,135.296,44.5267,79.9228,183.5582,-26.0972,93.3807,154.5174,-30.4757,92.9946,114.6059,-30.1847],[59.625,133.0579,42.4992,77.9579,179.5462,-26.1714,92.1439,156.1634,-30.7368,88.9093,114.3216,-30.473],[48.137,118.3495,4.1723,54.7261,160.0231,-71.3797,74.4189,136.3371,-70.3669,85.6069,96.9803,-61.7407],[47.1254,117.7821,4.5143,54.1881,159.8039,-68.3634,72.4227,136.2558,-70.2,85.8939,94.489,-60.186],[49.1418,121.9601,12.4414,52.1318,166.6999,-55.7006,76.5273,149.5258,-53.4495,93.8268,112.9966,-42.5385],[49.6135,118.9111,14.1908,53.2539,168.7153,-51.9963,75.8784,154.5688,-51.3895,96.3604,114.3584,-41.3766],[49.5185,121.818,17.049,53.7846,171.059,-50.3091,75.478,151.2326,-50.457,96.4605,111.498,-39.8909],[49.4701,121.5402,18.7426,51.7172,170.3052,-47.8852,77.6647,154.8316,-48.8237,98.1213,112.9886,-39.8955],[55.0303,123.8201,23.7606,74.3799,173.3629,-42.6671,89.8532,142.7841,-47.1377,89.4603,90.9684,-40.9438]],"net":{"layers":[{"0":{},"1":{},"2":{},"3":{},"4":{},"5":{},"6":{},"7":{},"8":{},"9":{},"10":{}},{"0":{"bias":1.2531085301621945,"weights":{"0":0.48053332111181857,"1":0.22181985661341597,"2":0.36320719911386334,"3":0.38736786156543285,"4":-0.11125127560343431,"5":0.6410706868440273,"6":0.11773574894552269,"7":-0.38137436464889474,"8":0.7157984624811007,"9":0.027320606277895912,"10":-0.27003783046625535}},"1":{"bias":1.0008019079808912,"weights":{"0":0.43907888858862687,"1":0.12450245778402987,"2":0.6026224093993467,"3":0.07658003465263023,"4":-0.15272127479775602,"5":0.8631371659830631,"6":0.11447000734910183,"7":-0.27852414653603746,"8":0.5106915083770444,"9":0.052081286061973195,"10":-0.1577946441731914}},"2":{"bias":0.49226182248644773,"weights":{"0":-0.02976265337906079,"1":-0.7056979291345998,"2":0.13527760832066926,"3":-0.035512814644294226,"4":-0.9872503259330239,"5":0.4825218056143675,"6":-0.37784459795737535,"7":-0.7948233903403111,"8":0.28037591483976293,"9":-0.38932720113417557,"10":-0.7148394343700493}},"3":{"bias":1.0781410061543404,"weights":{"0":0.15311449811302666,"1":0.005829746512217284,"2":0.480066167944373,"3":0.1183055527809079,"4":0.05291223137686952,"5":0.33128938758738297,"6":0.13430954767898157,"7":-0.23986374991978163,"8":0.6799219012989327,"9":0.016238943286837136,"10":-0.21580378192933816}},"4":{"bias":1.1919668637720944,"weights":{"0":0.15982312812467483,"1":-0.3011863288604855,"2":0.32026788423969105,"3":0.25493525957677493,"4":-0.31212692933805763,"5":0.5651482043629449,"6":0.23445136030969665,"7":-0.47117584587823824,"8":0.5475496002544568,"9":-0.18234515558670286,"10":-0.28459294501187365}}},{"0":{"bias":4.176882234412948,"weights":{"0":-3.0427331879785373,"1":-2.5240387081901186,"2":-1.4761236346775943,"3":-2.6970406015763517,"4":-2.190867546676738}}}]}}